digraph Tree {
node [shape=box] ;
0 [label="X[11167] <= 0.5\ngini = 0.552\nsamples = 7500\nvalue = [26, 2, 1, 96, 259, 46, 26, 214, 404, 1508, 4757\n11, 148, 2]"] ;
1 [label="X[11166] <= 0.5\ngini = 0.691\nsamples = 2846\nvalue = [26, 2, 1, 93, 258, 46, 26, 213, 401, 1476, 154\n11, 137, 2]"] ;
0 -> 1 [labeldistance=2.5, labelangle=45, headlabel="True"] ;
2 [label="X[11165] <= 0.5\ngini = 0.828\nsamples = 1333\nvalue = [26, 2, 1, 86, 258, 46, 26, 212, 398, 71, 114, 11\n80, 2]"] ;
1 -> 2 ;
3 [label="X[11161] <= 0.5\ngini = 0.83\nsamples = 914\nvalue = [25, 2, 1, 85, 258, 46, 26, 212, 18, 68, 111, 11\n49, 2]"] ;
2 -> 3 ;
4 [label="X[11164] <= 0.5\ngini = 0.827\nsamples = 656\nvalue = [25, 2, 1, 85, 8, 44, 23, 211, 17, 68, 110, 11\n49, 2]"] ;
3 -> 4 ;
5 [label="gini = 0.851\nsamples = 447\nvalue = [25, 2, 1, 85, 8, 44, 23, 3, 17, 67, 110, 11\n49, 2]"] ;
4 -> 5 ;
6 [label="gini = 0.01\nsamples = 209\nvalue = [0, 0, 0, 0, 0, 0, 0, 208, 0, 1, 0, 0, 0, 0]"] ;
4 -> 6 ;
7 [label="X[225] <= 0.5\ngini = 0.061\nsamples = 258\nvalue = [0, 0, 0, 0, 250, 2, 3, 1, 1, 0, 1, 0, 0, 0]"] ;
3 -> 7 ;
8 [label="gini = 0.054\nsamples = 257\nvalue = [0, 0, 0, 0, 250, 2, 3, 1, 1, 0, 0, 0, 0, 0]"] ;
7 -> 8 ;
9 [label="gini = 0.0\nsamples = 1\nvalue = [0, 0, 0, 0, 0, 0, 0, 0, 0, 0, 1, 0, 0, 0]"] ;
7 -> 9 ;
10 [label="X[787] <= 0.5\ngini = 0.172\nsamples = 419\nvalue = [1, 0, 0, 1, 0, 0, 0, 0, 380, 3, 3, 0, 31, 0]"] ;
2 -> 10 ;
11 [label="X[7] <= 1.5\ngini = 0.084\nsamples = 370\nvalue = [1, 0, 0, 1, 0, 0, 0, 0, 354, 3, 3, 0, 8, 0]"] ;
10 -> 11 ;
12 [label="gini = 0.0\nsamples = 251\nvalue = [0, 0, 0, 0, 0, 0, 0, 0, 251, 0, 0, 0, 0, 0]"] ;
11 -> 12 ;
13 [label="gini = 0.245\nsamples = 119\nvalue = [1, 0, 0, 1, 0, 0, 0, 0, 103, 3, 3, 0, 8, 0]"] ;
11 -> 13 ;
14 [label="X[7] <= 1.5\ngini = 0.498\nsamples = 49\nvalue = [0, 0, 0, 0, 0, 0, 0, 0, 26, 0, 0, 0, 23, 0]"] ;
10 -> 14 ;
15 [label="gini = 0.0\nsamples = 10\nvalue = [0, 0, 0, 0, 0, 0, 0, 0, 10, 0, 0, 0, 0, 0]"] ;
14 -> 15 ;
16 [label="gini = 0.484\nsamples = 39\nvalue = [0, 0, 0, 0, 0, 0, 0, 0, 16, 0, 0, 0, 23, 0]"] ;
14 -> 16 ;
17 [label="X[7] <= 1.5\ngini = 0.136\nsamples = 1513\nvalue = [0, 0, 0, 7, 0, 0, 0, 1, 3, 1405, 40, 0, 57\n0]"] ;
1 -> 17 ;
18 [label="X[4570] <= 0.5\ngini = 0.01\nsamples = 1037\nvalue = [0, 0, 0, 4, 0, 0, 0, 1, 0, 1032, 0, 0, 0, 0]"] ;
17 -> 18 ;
19 [label="X[894] <= 0.5\ngini = 0.008\nsamples = 1036\nvalue = [0, 0, 0, 4, 0, 0, 0, 0, 0, 1032, 0, 0, 0, 0]"] ;
18 -> 19 ;
20 [label="gini = 0.006\nsamples = 1035\nvalue = [0, 0, 0, 3, 0, 0, 0, 0, 0, 1032, 0, 0, 0, 0]"] ;
19 -> 20 ;
21 [label="gini = 0.0\nsamples = 1\nvalue = [0, 0, 0, 1, 0, 0, 0, 0, 0, 0, 0, 0, 0, 0]"] ;
19 -> 21 ;
22 [label="gini = 0.0\nsamples = 1\nvalue = [0, 0, 0, 0, 0, 0, 0, 1, 0, 0, 0, 0, 0, 0]"] ;
18 -> 22 ;
23 [label="X[11141] <= 0.5\ngini = 0.364\nsamples = 476\nvalue = [0, 0, 0, 3, 0, 0, 0, 0, 3, 373, 40, 0, 57, 0]"] ;
17 -> 23 ;
24 [label="X[787] <= 0.5\ngini = 0.293\nsamples = 396\nvalue = [0, 0, 0, 3, 0, 0, 0, 0, 3, 328, 5, 0, 57, 0]"] ;
23 -> 24 ;
25 [label="gini = 0.256\nsamples = 352\nvalue = [0, 0, 0, 3, 0, 0, 0, 0, 3, 301, 5, 0, 40, 0]"] ;
24 -> 25 ;
26 [label="gini = 0.474\nsamples = 44\nvalue = [0, 0, 0, 0, 0, 0, 0, 0, 0, 27, 0, 0, 17, 0]"] ;
24 -> 26 ;
27 [label="X[11183] <= 0.5\ngini = 0.492\nsamples = 80\nvalue = [0, 0, 0, 0, 0, 0, 0, 0, 0, 45, 35, 0, 0, 0]"] ;
23 -> 27 ;
28 [label="gini = 0.5\nsamples = 72\nvalue = [0, 0, 0, 0, 0, 0, 0, 0, 0, 37, 35, 0, 0, 0]"] ;
27 -> 28 ;
29 [label="gini = 0.0\nsamples = 8\nvalue = [0, 0, 0, 0, 0, 0, 0, 0, 0, 8, 0, 0, 0, 0]"] ;
27 -> 29 ;
30 [label="X[11138] <= 0.5\ngini = 0.022\nsamples = 4654\nvalue = [0, 0, 0, 3, 1, 0, 0, 1, 3, 32, 4603, 0, 11\n0]"] ;
0 -> 30 [labeldistance=2.5, labelangle=-45, headlabel="False"] ;
31 [label="X[11139] <= 0.5\ngini = 0.017\nsamples = 4642\nvalue = [0, 0, 0, 3, 1, 0, 0, 1, 2, 24, 4603, 0, 8, 0]"] ;
30 -> 31 ;
32 [label="X[11131] <= 0.5\ngini = 0.015\nsamples = 4638\nvalue = [0, 0, 0, 3, 1, 0, 0, 1, 2, 20, 4603, 0, 8, 0]"] ;
31 -> 32 ;
33 [label="X[11140] <= 0.5\ngini = 0.014\nsamples = 4636\nvalue = [0, 0, 0, 3, 1, 0, 0, 1, 2, 20, 4603, 0, 6, 0]"] ;
32 -> 33 ;
34 [label="gini = 0.013\nsamples = 4634\nvalue = [0, 0, 0, 3, 1, 0, 0, 1, 2, 18, 4603, 0, 6, 0]"] ;
33 -> 34 ;
35 [label="gini = 0.0\nsamples = 2\nvalue = [0, 0, 0, 0, 0, 0, 0, 0, 0, 2, 0, 0, 0, 0]"] ;
33 -> 35 ;
36 [label="gini = 0.0\nsamples = 2\nvalue = [0, 0, 0, 0, 0, 0, 0, 0, 0, 0, 0, 0, 2, 0]"] ;
32 -> 36 ;
37 [label="gini = 0.0\nsamples = 4\nvalue = [0, 0, 0, 0, 0, 0, 0, 0, 0, 4, 0, 0, 0, 0]"] ;
31 -> 37 ;
38 [label="X[3] <= 28.5\ngini = 0.486\nsamples = 12\nvalue = [0, 0, 0, 0, 0, 0, 0, 0, 1, 8, 0, 0, 3, 0]"] ;
30 -> 38 ;
39 [label="X[11149] <= 0.5\ngini = 0.48\nsamples = 5\nvalue = [0, 0, 0, 0, 0, 0, 0, 0, 0, 2, 0, 0, 3, 0]"] ;
38 -> 39 ;
40 [label="gini = 0.0\nsamples = 1\nvalue = [0, 0, 0, 0, 0, 0, 0, 0, 0, 1, 0, 0, 0, 0]"] ;
39 -> 40 ;
41 [label="X[5] <= 41.0\ngini = 0.375\nsamples = 4\nvalue = [0, 0, 0, 0, 0, 0, 0, 0, 0, 1, 0, 0, 3, 0]"] ;
39 -> 41 ;
42 [label="gini = 0.0\nsamples = 3\nvalue = [0, 0, 0, 0, 0, 0, 0, 0, 0, 0, 0, 0, 3, 0]"] ;
41 -> 42 ;
43 [label="gini = 0.0\nsamples = 1\nvalue = [0, 0, 0, 0, 0, 0, 0, 0, 0, 1, 0, 0, 0, 0]"] ;
41 -> 43 ;
44 [label="X[333] <= 0.5\ngini = 0.245\nsamples = 7\nvalue = [0, 0, 0, 0, 0, 0, 0, 0, 1, 6, 0, 0, 0, 0]"] ;
38 -> 44 ;
45 [label="gini = 0.0\nsamples = 6\nvalue = [0, 0, 0, 0, 0, 0, 0, 0, 0, 6, 0, 0, 0, 0]"] ;
44 -> 45 ;
46 [label="gini = 0.0\nsamples = 1\nvalue = [0, 0, 0, 0, 0, 0, 0, 0, 1, 0, 0, 0, 0, 0]"] ;
44 -> 46 ;
}